net
{
	propagationenginegenerator1791944048146838126L = "edu.ucla.belief.approx.BeliefPropagationSettings@62c5294d";
	recoveryenginegenerator6944530267470113528l = "edu.ucla.util.SettingsImpl@15eccd21";
	node_size = (130.0 55.0);
	huginenginegenerator3061656038650325130L = "edu.ucla.belief.inference.JoinTreeSettings@18d9d3a";
	rcenginegenerator1317510038576835557L = "edu.ucla.belief.inference.RCSettings@1a9744c";
}

node DebtIncomeRatio
{
	states = ("Low" "High" );
	position = (418 -27);
	DSLxEXTRA_DEFINITIONxMANDATORY = "false";
	diagnosistype = "AUXILIARY";
	label = "Ratio of Debts To Income";
	DSLxPOSITIONxWIDTH = "81";
	DSLxEXTRA_DEFINITIONxDIAGNOSIS_TYPE = "AUXILIARY";
	excludepolicy = "include whole CPT";
	DSLxTYPE = "CPT";
	DSLxPOSITIONxHEIGHT = "30";
	DSLxEXTRA_DEFINITIONxRANKED = "false";
	ismapvariable = "false";
	ID = "RatioDebInc";
}
node Age
{
	states = ("Between16and21" "Between22and64" "Over65" );
	position = (1107 -222);
	DSLxEXTRA_DEFINITIONxMANDATORY = "false";
	diagnosistype = "AUXILIARY";
	label = "Age";
	DSLxPOSITIONxWIDTH = "70";
	DSLxEXTRA_DEFINITIONxDIAGNOSIS_TYPE = "AUXILIARY";
	excludepolicy = "include whole CPT";
	DSLxTYPE = "CPT";
	DSLxPOSITIONxHEIGHT = "30";
	DSLxEXTRA_DEFINITIONxRANKED = "false";
	ismapvariable = "false";
	ID = "Age";
}
node Assets
{
	states = ("High" "Medium" "Low" );
	position = (367 -220);
	DSLxEXTRA_DEFINITIONxMANDATORY = "false";
	diagnosistype = "AUXILIARY";
	label = "Assets";
	DSLxPOSITIONxWIDTH = "70";
	DSLxEXTRA_DEFINITIONxDIAGNOSIS_TYPE = "AUXILIARY";
	excludepolicy = "include whole CPT";
	DSLxTYPE = "CPT";
	DSLxPOSITIONxHEIGHT = "30";
	DSLxEXTRA_DEFINITIONxRANKED = "false";
	ismapvariable = "false";
	ID = "Worth";
}
node Income
{
	states = ("High" "Medium" "Low" );
	position = (-10 -221);
	DSLxEXTRA_DEFINITIONxMANDATORY = "false";
	diagnosistype = "AUXILIARY";
	label = "Income";
	DSLxPOSITIONxWIDTH = "83";
	DSLxEXTRA_DEFINITIONxDIAGNOSIS_TYPE = "AUXILIARY";
	excludepolicy = "include whole CPT";
	DSLxTYPE = "CPT";
	DSLxPOSITIONxHEIGHT = "30";
	DSLxEXTRA_DEFINITIONxRANKED = "false";
	ismapvariable = "false";
	ID = "Profession";
}
node FutureIncome
{
	states = ("Promising" "Not_promising" );
	position = (172 -501);
	DSLxEXTRA_DEFINITIONxMANDATORY = "false";
	diagnosistype = "AUXILIARY";
	label = "Future Income";
	DSLxPOSITIONxWIDTH = "90";
	DSLxEXTRA_DEFINITIONxDIAGNOSIS_TYPE = "AUXILIARY";
	excludepolicy = "include whole CPT";
	DSLxTYPE = "CPT";
	DSLxPOSITIONxHEIGHT = "30";
	DSLxEXTRA_DEFINITIONxRANKED = "false";
	ismapvariable = "false";
	ID = "FutureIncome";
}
node CreditWorthiness
{
	states = ("Positive" "Negative" );
	position = (443 -717);
	DSLxEXTRA_DEFINITIONxMANDATORY = "false";
	diagnosistype = "AUXILIARY";
	label = "Credit Worthiness";
	DSLxPOSITIONxWIDTH = "100";
	DSLxEXTRA_DEFINITIONxDIAGNOSIS_TYPE = "AUXILIARY";
	excludepolicy = "include whole CPT";
	DSLxTYPE = "CPT";
	DSLxPOSITIONxHEIGHT = "30";
	DSLxEXTRA_DEFINITIONxRANKED = "false";
	ismapvariable = "false";
	ID = "CreditWorthiness";
}
node Reliability
{
	states = ("Reliable" "Unreliable" );
	position = (848 -516);
	DSLxEXTRA_DEFINITIONxMANDATORY = "false";
	diagnosistype = "AUXILIARY";
	label = "Reliability";
	DSLxPOSITIONxWIDTH = "70";
	DSLxEXTRA_DEFINITIONxDIAGNOSIS_TYPE = "AUXILIARY";
	excludepolicy = "include whole CPT";
	DSLxTYPE = "CPT";
	DSLxPOSITIONxHEIGHT = "30";
	DSLxEXTRA_DEFINITIONxRANKED = "false";
	ismapvariable = "false";
	ID = "Reliability";
}
node PaymentHistory
{
	states = ("Excellent" "Acceptable" "Unacceptable" );
	position = (537 -220);
	DSLxEXTRA_DEFINITIONxMANDATORY = "false";
	diagnosistype = "AUXILIARY";
	label = "Payment History";
	DSLxPOSITIONxWIDTH = "93";
	DSLxEXTRA_DEFINITIONxDIAGNOSIS_TYPE = "AUXILIARY";
	excludepolicy = "include whole CPT";
	DSLxTYPE = "CPT";
	DSLxPOSITIONxHEIGHT = "30";
	DSLxEXTRA_DEFINITIONxRANKED = "false";
	ismapvariable = "false";
	ID = "PaymentHistory";
}
potential ( DebtIncomeRatio | )
{
	data = (	0.35	0.65	);
}
potential ( Age | )
{
	data = (	0.2	0.4	0.4	);
}
potential ( Assets | Income )
{
	data = ((	0.6000000000000001	0.30000000000000004	0.1	)
		(	0.4	0.5	0.1	)
		(	0.1111111111111111	0.2777777777777778	0.6111111111111112	));
}
potential ( Income | )
{
	data = (	0.15789473684210525	0.47368421052631576	0.3684210526315789	);
}
potential ( FutureIncome | Assets Income )
{
	data = (((	0.6	0.4	)
		(	0.5	0.5	)
		(	0.55	0.45	))
		((	0.5	0.5	)
		(	0.4	0.6	)
		(	0.37499999999999994	0.625	))
		((	0.7	0.3	)
		(	0.55	0.45	)
		(	0.3	0.7	)));
}
potential ( CreditWorthiness | Reliability FutureIncome )
{
	data = (((	0.8	0.2	)
		(	0.59	0.41	))
		((	0.4	0.6	)
		(	0.2	0.8	)));
}
potential ( Reliability | PaymentHistory Age )
{
	data = (((	0.6	0.4	)
		(	0.7	0.3	)
		(	0.8	0.2	))
		((	0.55	0.45	)
		(	0.58	0.42	)
		(	0.6	0.4	))
		((	0.35	0.65	)
		(	0.45	0.55	)
		(	0.48	0.52	)));
}
potential ( PaymentHistory | Age DebtIncomeRatio )
{
	data = (((	0.4	0.35	0.25	)
		(	0.25	0.35	0.4	))
		((	0.35	0.5	0.15	)
		(	0.3	0.5181818181818182	0.18181818181818182	))
		((	0.55	0.35	0.1	)
		(	0.35	0.45	0.2	)));
}
